{"W1":[[2.4875608862297653,-2.2146536972272957,0.43789048724535784,0.48050843639290253,0.3941054724717602],[-5.9465798462165989,4.2373465487825888,2.5934080824527364,4.198780552741562,8.39363864946712],[22.683815518117051,6.0622172730199013,-18.997284226146363,0.27834574359401887,2.1169060742137868],[-2.4397667245669514,10.749574922696659,6.038965507949249,-6.02715201081082,-5.65077341262063],[7.5469639887163922,9.5546930838445228,-9.3711431736688269,-8.1672929093552362,-5.5648828003382738],[21.786948710584785,-0.32055678896326756,2.1248506486454022,0.88736751356805721,-11.01686178266926],[6.8386844419182289,-4.78820150177553,-3.5648159975805518,-5.1398781981973434,-4.6070383520868061],[-2.580627534080564,2.9678783647928904,-0.11904606005302837,0.27811320153588104,-1.5298637958780781]],"b1":[-1.2634864036946483,-3.8363449970171342,0.70681431373740611,1.1449492567457158,-4.1394931937298507,9.5017264842825551,3.1102142990244253,1.4194675555242964],"W2":[-4.288010745944109,5.9650665840852275,0.699723126901304,0.67030793737045624,-0.42124761160454088,-0.59939897243647156,6.6891457480279026,-3.5589872514189094],"b2":-0.71922588160648249,"mean_in":[0.19928431372548996,1.664731922830152,0.56943137254901965,0.36085948971663961,0.27961764705882325],"std_in":[0.023068352116502173,0.45822531602872141,0.14399768810930141,0.12342223758802583,0.11904004082080047],"norm_in":{"xmin":[-1.5043278908665176,-1.1219074118398349,-1.7371260386229093,-1.8294523798913696,-1.224712232708463],"xmax":[3.6606015296681944,2.2542296696198743,2.7580276467241673,2.0251010197141825,2.3750013218579933],"ymin":-1,"ymax":1},"norm_out":{"xmin":12,"xmax":17,"ymin":-1,"ymax":1}}