{"W1":[[0.8611710426854684,0.095533412534575368,20.664256222357736,3.8848643204342439,6.7556829569099746],[3.7989467754478508,-1.6711133600635184,3.5981804575177212,5.2221731956949764,5.3192165826248035],[1.6125448781914919,0.44113648006614142,-3.6820410971750941,-6.7783894042033452,-7.7676525279472965],[2.59922174245266,-1.389833410780299,-2.4161793960448716,-0.29161036908742566,2.2343096153299147],[19.002457123840372,7.3439284617001634,-26.982688588916677,-0.52816200273817948,2.3411933453393323],[-0.23181415643425871,-0.33646214169374838,-4.47980477947182,1.3380040200664629,-0.98302513803847624],[12.665760483210043,-4.9374607235071233,-3.5218019994079852,4.469915898391676,6.2608313264198818],[-25.695813753193434,5.2557850747758872,9.76720246818614,8.2274524583127437,3.3499827730664911]],"b1":[9.8639871150943588,4.7134225891200021,-7.1546362935331667,1.2141337766208244,-1.7626066863454739,-3.516666871801859,20.318150775738324,-16.0327975374162],"W2":[-10.496612063850758,-9.6572074956880822,-0.65014978123952472,10.114950048470719,-0.81561209418317815,-8.3608196886325867,-0.78089835717330358,-0.57560219662078493],"b2":2.0362967637490472,"mean_in":[0.19760101010100994,1.5988103651317322,81.652330243500046,0.555883838383839,0.75348484848484831],"std_in":[0.020513716287867939,0.39579595720425792,12.401252395087511,0.11235162543613196,0.12474876939694816],"norm_in":{"xmin":[-1.0860213516103456,-1.1504268169390164,-2.186028376960699,-1.4406906770789083,-1.3909492168884383],"xmax":[2.7740349170425413,2.522100872020844,1.778553108378766,3.0672448143238338,2.7261280422538738],"ymin":-1,"ymax":1},"norm_out":{"xmin":96.6666666666667,"xmax":129,"ymin":-1,"ymax":1}}