{"W1":[[6.9326605507750765,-3.1263828234939641,-4.1367739869416242,-11.575993927122676,-3.4636984315699815],[1.1322637013238843,6.3444065486196388,-5.1842923265210761,-6.74699968254324,-4.5178682416700733],[1.0891352480941867,5.8117361531551675,-1.6372517771878272,-0.65357847124040158,0.27254635252143256],[0.60348714828414829,6.7422518725357543,1.6972179134800458,8.9734091780469356,3.422405720290612],[1.4022864527248147,12.469507816701478,-0.096874641246831455,2.289062365071088,-4.6242394885065616],[0.87576129805749647,2.5688624404943226,0.83374753749360586,9.7915669730188011,10.278208804572945],[10.089479300685433,16.685582503842294,5.5569443325982961,-13.023053752711547,6.4691001436103521],[1.233011343731329,6.2721544524644326,-1.4350995480393423,2.6562154588304168,4.62019200787284]],"b1":[-4.5050631636095817,8.9074033269207948,5.9945024400124627,3.0043403591307669,0.18332579481261324,4.7642706619502615,5.9418450161142005,7.3274708365630374],"W2":[1.1121682186827333,1.7508362702980662,-5.5170639456490846,1.9635940149891307,-1.5843300096360795,-2.3280406444574222,1.1130357862596276,3.9799890323597134],"b2":0.99719071140022908,"mean_in":[1.5988103651317322,0.19760101010100994,0.54517015531628932,81.652330243500046,0.555883838383839],"std_in":[0.39579595720425792,0.020513716287867939,0.12364504430390362,12.401252395087511,0.11235162543613196],"norm_in":{"xmin":[-1.1303516132623308,-1.1120592674593368,-2.3216695050374856,-2.1816774624465567,-1.4286781616571225],"xmax":[2.6277864958840378,2.837775889791216,1.6093044218221173,1.7626151879237653,3.0651795208722175],"ymin":-1,"ymax":1},"norm_out":{"xmin":60,"xmax":82,"ymin":-1,"ymax":1}}